elements: [Nb, Ni] 
E0: [0.000000, 0.000000] 
deltaSplineBins: 0.001000 
embeddings:
  0: {ndensity: 1, FS_parameters: [1.0, 1.0], npoti: FinnisSinclair, rho_core_cutoff: 100000, drho_core_cutoff: 250}
  1: {ndensity: 1, FS_parameters: [1.0, 1.0], npoti: FinnisSinclair, rho_core_cutoff: 100000, drho_core_cutoff: 250}
bonds:
  [0, 0]: {nradmax: 3, lmax: 2, nradbasemax: 3, radbasename: ChebExpCos, radparameters: [0.246], radcoefficients: [[[1, 0, 0], [1, 0, 0], [1, 0, 0]], [[0, 1, 0], [0, 1, 0], [0, 1, 0]], [[0, 0, 1], [0, 0, 1], [0, 0, 1]]], prehc: 0, lambdahc: 0.246, rcut: 4.93, dcut: 0.01, rcut_in: 0.0, dcut_in: 0.0, inner_cutoff_type: distance}
  [0, 1]: {nradmax: 3, lmax: 2, nradbasemax: 3, radbasename: ChebExpCos, radparameters: [0.238], radcoefficients: [[[1, 0, 0], [1, 0, 0], [1, 0, 0]], [[0, 1, 0], [0, 1, 0], [0, 1, 0]], [[0, 0, 1], [0, 0, 1], [0, 0, 1]]], prehc: 0, lambdahc: 0.238, rcut: 4.76, dcut: 0.01, rcut_in: 0.0, dcut_in: 0.0, inner_cutoff_type: distance}
  [1, 0]: {nradmax: 3, lmax: 2, nradbasemax: 3, radbasename: ChebExpCos, radparameters: [0.238], radcoefficients: [[[1, 0, 0], [1, 0, 0], [1, 0, 0]], [[0, 1, 0], [0, 1, 0], [0, 1, 0]], [[0, 0, 1], [0, 0, 1], [0, 0, 1]]], prehc: 0, lambdahc: 0.238, rcut: 4.76, dcut: 0.01, rcut_in: 0.0, dcut_in: 0.0, inner_cutoff_type: distance}
  [1, 1]: {nradmax: 3, lmax: 2, nradbasemax: 3, radbasename: ChebExpCos, radparameters: [0.23], radcoefficients: [[[1, 0, 0], [1, 0, 0], [1, 0, 0]], [[0, 1, 0], [0, 1, 0], [0, 1, 0]], [[0, 0, 1], [0, 0, 1], [0, 0, 1]]], prehc: 0, lambdahc: 0.23, rcut: 4.59, dcut: 0.01, rcut_in: 0.0, dcut_in: 0.0, inner_cutoff_type: distance}
functions:
  0:
    - {mu0: 0, rank: 1, ndensity: 1, num_ms_combs: 1, mus: [0], ns: [1], ls: [0], ms_combs: [0], ctildes: [1.0]}
    - {mu0: 0, rank: 1, ndensity: 1, num_ms_combs: 1, mus: [1], ns: [1], ls: [0], ms_combs: [0], ctildes: [1.0]}
    - {mu0: 0, rank: 1, ndensity: 1, num_ms_combs: 1, mus: [0], ns: [2], ls: [0], ms_combs: [0], ctildes: [1.0]}
    - {mu0: 0, rank: 1, ndensity: 1, num_ms_combs: 1, mus: [1], ns: [2], ls: [0], ms_combs: [0], ctildes: [1.0]}
    - {mu0: 0, rank: 1, ndensity: 1, num_ms_combs: 1, mus: [0], ns: [3], ls: [0], ms_combs: [0], ctildes: [1.0]}
    - {mu0: 0, rank: 1, ndensity: 1, num_ms_combs: 1, mus: [1], ns: [3], ls: [0], ms_combs: [0], ctildes: [1.0]}
    - {mu0: 0, rank: 2, ndensity: 1, num_ms_combs: 1, mus: [0, 0], ns: [1, 1], ls: [0, 0], ms_combs: [0, 0], ctildes: [1.0]}
    - {mu0: 0, rank: 2, ndensity: 1, num_ms_combs: 1, mus: [0, 1], ns: [1, 1], ls: [0, 0], ms_combs: [0, 0], ctildes: [1.0]}
    - {mu0: 0, rank: 2, ndensity: 1, num_ms_combs: 1, mus: [1, 1], ns: [1, 1], ls: [0, 0], ms_combs: [0, 0], ctildes: [1.0]}
    - {mu0: 0, rank: 2, ndensity: 1, num_ms_combs: 3, mus: [0, 0], ns: [1, 1], ls: [1, 1], ms_combs: [-1, 1, 0, 0, 1, -1], ctildes: [0.5773502691896257, -0.5773502691896257, 0.5773502691896257]}
    - {mu0: 0, rank: 2, ndensity: 1, num_ms_combs: 3, mus: [0, 1], ns: [1, 1], ls: [1, 1], ms_combs: [-1, 1, 0, 0, 1, -1], ctildes: [0.5773502691896257, -0.5773502691896257, 0.5773502691896257]}
    - {mu0: 0, rank: 2, ndensity: 1, num_ms_combs: 3, mus: [1, 1], ns: [1, 1], ls: [1, 1], ms_combs: [-1, 1, 0, 0, 1, -1], ctildes: [0.5773502691896257, -0.5773502691896257, 0.5773502691896257]}
    - {mu0: 0, rank: 3, ndensity: 1, num_ms_combs: 19, mus: [0, 0, 0], ns: [1, 1, 1], ls: [2, 2, 2], ms_combs: [-2, 0, 2, -2, 1, 1, -2, 2, 0, -1, -1, 2, -1, 0, 1, -1, 1, 0, -1, 2, -1, 0, -2, 2, 0, -1, 1, 0, 0, 0, 0, 1, -1, 0, 2, -2, 1, -2, 1, 1, -1, 0, 1, 0, -1, 1, 1, -2, 2, -2, 0, 2, -1, -1, 2, 0, -2], ctildes: [0.23904572186687872, -0.2927700218845599, 0.23904572186687875, -0.2927700218845599, 0.11952286093343936, 0.11952286093343938, -0.2927700218845599, 0.23904572186687872, 0.11952286093343936, -0.23904572186687875, 0.11952286093343936, 0.23904572186687872, -0.2927700218845599, 0.11952286093343938, 0.11952286093343936, -0.2927700218845599, 0.23904572186687875, -0.2927700218845599, 0.23904572186687872]}
    - {mu0: 0, rank: 3, ndensity: 1, num_ms_combs: 19, mus: [0, 0, 1], ns: [1, 1, 1], ls: [2, 2, 2], ms_combs: [-2, 0, 2, -2, 1, 1, -2, 2, 0, -1, -1, 2, -1, 0, 1, -1, 1, 0, -1, 2, -1, 0, -2, 2, 0, -1, 1, 0, 0, 0, 0, 1, -1, 0, 2, -2, 1, -2, 1, 1, -1, 0, 1, 0, -1, 1, 1, -2, 2, -2, 0, 2, -1, -1, 2, 0, -2], ctildes: [0.23904572186687872, -0.2927700218845599, 0.23904572186687875, -0.2927700218845599, 0.11952286093343936, 0.11952286093343938, -0.2927700218845599, 0.23904572186687872, 0.11952286093343936, -0.23904572186687875, 0.11952286093343936, 0.23904572186687872, -0.2927700218845599, 0.11952286093343938, 0.11952286093343936, -0.2927700218845599, 0.23904572186687875, -0.2927700218845599, 0.23904572186687872]}
    - {mu0: 0, rank: 3, ndensity: 1, num_ms_combs: 19, mus: [0, 1, 1], ns: [1, 1, 1], ls: [2, 2, 2], ms_combs: [-2, 0, 2, -2, 1, 1, -2, 2, 0, -1, -1, 2, -1, 0, 1, -1, 1, 0, -1, 2, -1, 0, -2, 2, 0, -1, 1, 0, 0, 0, 0, 1, -1, 0, 2, -2, 1, -2, 1, 1, -1, 0, 1, 0, -1, 1, 1, -2, 2, -2, 0, 2, -1, -1, 2, 0, -2], ctildes: [0.23904572186687872, -0.2927700218845599, 0.23904572186687875, -0.2927700218845599, 0.11952286093343936, 0.11952286093343938, -0.2927700218845599, 0.23904572186687872, 0.11952286093343936, -0.23904572186687875, 0.11952286093343936, 0.23904572186687872, -0.2927700218845599, 0.11952286093343938, 0.11952286093343936, -0.2927700218845599, 0.23904572186687875, -0.2927700218845599, 0.23904572186687872]}
    - {mu0: 0, rank: 3, ndensity: 1, num_ms_combs: 19, mus: [1, 1, 1], ns: [1, 1, 1], ls: [2, 2, 2], ms_combs: [-2, 0, 2, -2, 1, 1, -2, 2, 0, -1, -1, 2, -1, 0, 1, -1, 1, 0, -1, 2, -1, 0, -2, 2, 0, -1, 1, 0, 0, 0, 0, 1, -1, 0, 2, -2, 1, -2, 1, 1, -1, 0, 1, 0, -1, 1, 1, -2, 2, -2, 0, 2, -1, -1, 2, 0, -2], ctildes: [0.23904572186687872, -0.2927700218845599, 0.23904572186687875, -0.2927700218845599, 0.11952286093343936, 0.11952286093343938, -0.2927700218845599, 0.23904572186687872, 0.11952286093343936, -0.23904572186687875, 0.11952286093343936, 0.23904572186687872, -0.2927700218845599, 0.11952286093343938, 0.11952286093343936, -0.2927700218845599, 0.23904572186687875, -0.2927700218845599, 0.23904572186687872]}
  1:
    - {mu0: 1, rank: 1, ndensity: 1, num_ms_combs: 1, mus: [0], ns: [1], ls: [0], ms_combs: [0], ctildes: [1.0]}
    - {mu0: 1, rank: 1, ndensity: 1, num_ms_combs: 1, mus: [1], ns: [1], ls: [0], ms_combs: [0], ctildes: [1.0]}
    - {mu0: 1, rank: 1, ndensity: 1, num_ms_combs: 1, mus: [0], ns: [2], ls: [0], ms_combs: [0], ctildes: [1.0]}
    - {mu0: 1, rank: 1, ndensity: 1, num_ms_combs: 1, mus: [1], ns: [2], ls: [0], ms_combs: [0], ctildes: [1.0]}
    - {mu0: 1, rank: 1, ndensity: 1, num_ms_combs: 1, mus: [0], ns: [3], ls: [0], ms_combs: [0], ctildes: [1.0]}
    - {mu0: 1, rank: 1, ndensity: 1, num_ms_combs: 1, mus: [1], ns: [3], ls: [0], ms_combs: [0], ctildes: [1.0]}
    - {mu0: 1, rank: 2, ndensity: 1, num_ms_combs: 1, mus: [0, 0], ns: [1, 1], ls: [0, 0], ms_combs: [0, 0], ctildes: [1.0]}
    - {mu0: 1, rank: 2, ndensity: 1, num_ms_combs: 1, mus: [0, 1], ns: [1, 1], ls: [0, 0], ms_combs: [0, 0], ctildes: [1.0]}
    - {mu0: 1, rank: 2, ndensity: 1, num_ms_combs: 1, mus: [1, 1], ns: [1, 1], ls: [0, 0], ms_combs: [0, 0], ctildes: [1.0]}
    - {mu0: 1, rank: 2, ndensity: 1, num_ms_combs: 3, mus: [0, 0], ns: [1, 1], ls: [1, 1], ms_combs: [-1, 1, 0, 0, 1, -1], ctildes: [0.5773502691896257, -0.5773502691896257, 0.5773502691896257]}
    - {mu0: 1, rank: 2, ndensity: 1, num_ms_combs: 3, mus: [0, 1], ns: [1, 1], ls: [1, 1], ms_combs: [-1, 1, 0, 0, 1, -1], ctildes: [0.5773502691896257, -0.5773502691896257, 0.5773502691896257]}
    - {mu0: 1, rank: 2, ndensity: 1, num_ms_combs: 3, mus: [1, 1], ns: [1, 1], ls: [1, 1], ms_combs: [-1, 1, 0, 0, 1, -1], ctildes: [0.5773502691896257, -0.5773502691896257, 0.5773502691896257]}
    - {mu0: 1, rank: 3, ndensity: 1, num_ms_combs: 19, mus: [0, 0, 0], ns: [1, 1, 1], ls: [2, 2, 2], ms_combs: [-2, 0, 2, -2, 1, 1, -2, 2, 0, -1, -1, 2, -1, 0, 1, -1, 1, 0, -1, 2, -1, 0, -2, 2, 0, -1, 1, 0, 0, 0, 0, 1, -1, 0, 2, -2, 1, -2, 1, 1, -1, 0, 1, 0, -1, 1, 1, -2, 2, -2, 0, 2, -1, -1, 2, 0, -2], ctildes: [0.23904572186687872, -0.2927700218845599, 0.23904572186687875, -0.2927700218845599, 0.11952286093343936, 0.11952286093343938, -0.2927700218845599, 0.23904572186687872, 0.11952286093343936, -0.23904572186687875, 0.11952286093343936, 0.23904572186687872, -0.2927700218845599, 0.11952286093343938, 0.11952286093343936, -0.2927700218845599, 0.23904572186687875, -0.2927700218845599, 0.23904572186687872]}
    - {mu0: 1, rank: 3, ndensity: 1, num_ms_combs: 19, mus: [0, 0, 1], ns: [1, 1, 1], ls: [2, 2, 2], ms_combs: [-2, 0, 2, -2, 1, 1, -2, 2, 0, -1, -1, 2, -1, 0, 1, -1, 1, 0, -1, 2, -1, 0, -2, 2, 0, -1, 1, 0, 0, 0, 0, 1, -1, 0, 2, -2, 1, -2, 1, 1, -1, 0, 1, 0, -1, 1, 1, -2, 2, -2, 0, 2, -1, -1, 2, 0, -2], ctildes: [0.23904572186687872, -0.2927700218845599, 0.23904572186687875, -0.2927700218845599, 0.11952286093343936, 0.11952286093343938, -0.2927700218845599, 0.23904572186687872, 0.11952286093343936, -0.23904572186687875, 0.11952286093343936, 0.23904572186687872, -0.2927700218845599, 0.11952286093343938, 0.11952286093343936, -0.2927700218845599, 0.23904572186687875, -0.2927700218845599, 0.23904572186687872]}
    - {mu0: 1, rank: 3, ndensity: 1, num_ms_combs: 19, mus: [0, 1, 1], ns: [1, 1, 1], ls: [2, 2, 2], ms_combs: [-2, 0, 2, -2, 1, 1, -2, 2, 0, -1, -1, 2, -1, 0, 1, -1, 1, 0, -1, 2, -1, 0, -2, 2, 0, -1, 1, 0, 0, 0, 0, 1, -1, 0, 2, -2, 1, -2, 1, 1, -1, 0, 1, 0, -1, 1, 1, -2, 2, -2, 0, 2, -1, -1, 2, 0, -2], ctildes: [0.23904572186687872, -0.2927700218845599, 0.23904572186687875, -0.2927700218845599, 0.11952286093343936, 0.11952286093343938, -0.2927700218845599, 0.23904572186687872, 0.11952286093343936, -0.23904572186687875, 0.11952286093343936, 0.23904572186687872, -0.2927700218845599, 0.11952286093343938, 0.11952286093343936, -0.2927700218845599, 0.23904572186687875, -0.2927700218845599, 0.23904572186687872]}
    - {mu0: 1, rank: 3, ndensity: 1, num_ms_combs: 19, mus: [1, 1, 1], ns: [1, 1, 1], ls: [2, 2, 2], ms_combs: [-2, 0, 2, -2, 1, 1, -2, 2, 0, -1, -1, 2, -1, 0, 1, -1, 1, 0, -1, 2, -1, 0, -2, 2, 0, -1, 1, 0, 0, 0, 0, 1, -1, 0, 2, -2, 1, -2, 1, 1, -1, 0, 1, 0, -1, 1, 1, -2, 2, -2, 0, 2, -1, -1, 2, 0, -2], ctildes: [0.23904572186687872, -0.2927700218845599, 0.23904572186687875, -0.2927700218845599, 0.11952286093343936, 0.11952286093343938, -0.2927700218845599, 0.23904572186687872, 0.11952286093343936, -0.23904572186687875, 0.11952286093343936, 0.23904572186687872, -0.2927700218845599, 0.11952286093343938, 0.11952286093343936, -0.2927700218845599, 0.23904572186687875, -0.2927700218845599, 0.23904572186687872]}
